{
  "inputSize": 6,
  "hiddenSize": 32,
  "w1": [
    0.066021, -0.380424, -0.145846, -0.192309, 0.201885, 0.101894, 0.306816,
    -0.330449, -0.062463, -0.376162, -0.232325, 0.001941, -0.378873, -0.24093,
    0.111665, 0.037042, -0.227236, 0.054024, 0.2833, -0.385354, 0.115664,
    0.115034, -0.199732, -0.174526, 0.440151, -0.119045, -0.292989, -0.32431,
    0.29727, 0.293723, 0.218043, 0.05925, -0.151311, 0.582073, -0.092183,
    -0.062229, 0.609658, 0.270533, 0.088544, 0.011575, 0.169829, -0.141274,
    -0.302823, -0.16849, -0.332071, -0.243023, -0.342449, -0.301512, 0.197057,
    -0.174696, -0.171793, -0.271011, -0.190383, 0.420435, 0.118231, 0.087305,
    -0.263089, 0.13649, -0.284823, -0.044417, 0.861273, 0.331528, 0.074674,
    -0.013907, 0.320651, 0.198427, -0.304213, -0.384596, -0.042101, -0.091859,
    -0.172693, 0.367015, 0.23309, -0.189388, 0.09447, -0.060267, 0.308912,
    -0.030518, -0.292403, -0.263229, 0.042687, -0.117595, 0.043714, 0.2312,
    -0.138866, -0.36942, 0.244612, 0.073132, -0.324942, -0.383125, -0.348147,
    -0.12848, 0.225571, 0.034672, -0.270706, -0.198817, 0.355829, -0.024637,
    0.362629, 0.303774, -0.417283, 0.138254, 0.139945, 0.029576, -0.18654,
    0.067764, -0.32296, -0.006602, -0.073972, 0.243649, 0.168826, -0.145852,
    0.025293, -0.298324, 0.421248, 0.309442, -0.283099, 0.093796, 0.090267,
    -0.199854, 0.212822, 0.008914, 0.178964, 0.025717, -0.407641, -0.154202,
    -0.395553, 0.26855, 0.159454, 0.290266, -0.169012, -0.408997, 0.254731,
    0.406999, -0.284697, -0.091248, -0.281293, 0.343178, 0.184437, -0.295239,
    -0.120107, 0.013593, -0.237275, 0.147578, -0.071452, -0.230561, 0.009911,
    0.173022, -0.244748, -0.146931, 0.441315, 0.171393, -0.072468, -0.019679,
    -0.294779, -0.237996, -0.131235, 0.070647, -0.215908, -0.223826, -0.347562,
    0.066834, -0.257914, 0.259443, 0.245011, -0.343314, -0.229299, 0.124947,
    -0.164119, -0.280305, 0.204926, 0.008564, -0.134262, 0.218077, 0.233393,
    -0.247672, -0.322455, -0.052676, -0.08209, 0.000419, 0.276142, 0.153166,
    0.264253, -0.321759, -0.134304, -0.165166, 0.256731, -0.201075, -0.247815,
    -0.066509, -0.104572, -0.150527
  ],
  "b1": [
    0.014759, -0.029244, -0.017377, -0.100946, 0.00477, 0.087034, -0.071023,
    0.123891, 0.071111, -0.075138, -0.239462, 0.012688, -0.035208, -0.087059,
    0.020268, 0.028657, -0.016394, -0.048052, 0.104705, -0.071713, 0.014807,
    0.03588, 0.134696, -0.150368, -0.003696, 0.019644, -0.038048, -0.09095,
    -0.096212, -0.048025, 0.02291, -0.026637
  ],
  "w2": [
    -0.052584, 0.337411, 0.000995, 0.103212, 0.336519, -0.473889, 0.395996,
    0.426617, 0.408812, 0.31737, 0.666475, -0.196276, -0.039905, -0.190021,
    -0.216736, -0.246818, 0.002134, 0.383938, -0.137543, 0.276696, 0.026229,
    -0.172459, 0.3403, 0.334313, 0.03349, 0.220033, -0.269085, -0.06201,
    0.108975, 0.045463, 0.117096, 0.122353
  ],
  "b2": -0.267101
}
